digraph Tree {
node [shape=box] ;
0 [label="X[0] <= 0.32\ngini = 0.494\nsamples = 1097\nvalue = [611, 486]"] ;
1 [label="X[1] <= 7.128\ngini = 0.302\nsamples = 519\nvalue = [96, 423]"] ;
0 -> 1 [labeldistance=2.5, labelangle=45, headlabel="True"] ;
2 [label="X[0] <= -0.459\ngini = 0.114\nsamples = 430\nvalue = [26, 404]"] ;
1 -> 2 ;
3 [label="X[2] <= 6.739\ngini = 0.058\nsamples = 365\nvalue = [11, 354]"] ;
2 -> 3 ;
4 [label="gini = 0.0\nsamples = 258\nvalue = [0, 258]"] ;
3 -> 4 ;
5 [label="X[1] <= -4.876\ngini = 0.184\nsamples = 107\nvalue = [11, 96]"] ;
3 -> 5 ;
6 [label="gini = 0.0\nsamples = 96\nvalue = [0, 96]"] ;
5 -> 6 ;
7 [label="gini = 0.0\nsamples = 11\nvalue = [11, 0]"] ;
5 -> 7 ;
8 [label="X[2] <= 4.841\ngini = 0.355\nsamples = 65\nvalue = [15, 50]"] ;
2 -> 8 ;
9 [label="X[1] <= 5.454\ngini = 0.215\nsamples = 57\nvalue = [7, 50]"] ;
8 -> 9 ;
10 [label="X[2] <= 2.625\ngini = 0.038\nsamples = 51\nvalue = [1, 50]"] ;
9 -> 10 ;
11 [label="gini = 0.0\nsamples = 49\nvalue = [0, 49]"] ;
10 -> 11 ;
12 [label="X[1] <= -0.719\ngini = 0.5\nsamples = 2\nvalue = [1, 1]"] ;
10 -> 12 ;
13 [label="gini = 0.0\nsamples = 1\nvalue = [0, 1]"] ;
12 -> 13 ;
14 [label="gini = 0.0\nsamples = 1\nvalue = [1, 0]"] ;
12 -> 14 ;
15 [label="gini = 0.0\nsamples = 6\nvalue = [6, 0]"] ;
9 -> 15 ;
16 [label="gini = 0.0\nsamples = 8\nvalue = [8, 0]"] ;
8 -> 16 ;
17 [label="X[0] <= -3.596\ngini = 0.336\nsamples = 89\nvalue = [70, 19]"] ;
1 -> 17 ;
18 [label="gini = 0.0\nsamples = 19\nvalue = [0, 19]"] ;
17 -> 18 ;
19 [label="gini = 0.0\nsamples = 70\nvalue = [70, 0]"] ;
17 -> 19 ;
20 [label="X[2] <= -4.386\ngini = 0.194\nsamples = 578\nvalue = [515, 63]"] ;
0 -> 20 [labeldistance=2.5, labelangle=-45, headlabel="False"] ;
21 [label="X[0] <= 3.205\ngini = 0.375\nsamples = 32\nvalue = [8, 24]"] ;
20 -> 21 ;
22 [label="gini = 0.0\nsamples = 24\nvalue = [0, 24]"] ;
21 -> 22 ;
23 [label="gini = 0.0\nsamples = 8\nvalue = [8, 0]"] ;
21 -> 23 ;
24 [label="X[0] <= 1.592\ngini = 0.133\nsamples = 546\nvalue = [507, 39]"] ;
20 -> 24 ;
25 [label="X[2] <= -2.272\ngini = 0.368\nsamples = 152\nvalue = [115, 37]"] ;
24 -> 25 ;
26 [label="X[1] <= 5.667\ngini = 0.211\nsamples = 25\nvalue = [3, 22]"] ;
25 -> 26 ;
27 [label="gini = 0.0\nsamples = 22\nvalue = [0, 22]"] ;
26 -> 27 ;
28 [label="gini = 0.0\nsamples = 3\nvalue = [3, 0]"] ;
26 -> 28 ;
29 [label="X[3] <= 0.082\ngini = 0.208\nsamples = 127\nvalue = [112, 15]"] ;
25 -> 29 ;
30 [label="X[0] <= 0.42\ngini = 0.02\nsamples = 97\nvalue = [96, 1]"] ;
29 -> 30 ;
31 [label="X[2] <= -1.324\ngini = 0.165\nsamples = 11\nvalue = [10, 1]"] ;
30 -> 31 ;
32 [label="gini = 0.0\nsamples = 1\nvalue = [0, 1]"] ;
31 -> 32 ;
33 [label="gini = 0.0\nsamples = 10\nvalue = [10, 0]"] ;
31 -> 33 ;
34 [label="gini = 0.0\nsamples = 86\nvalue = [86, 0]"] ;
30 -> 34 ;
35 [label="X[2] <= 1.906\ngini = 0.498\nsamples = 30\nvalue = [16, 14]"] ;
29 -> 35 ;
36 [label="X[1] <= 3.7\ngini = 0.124\nsamples = 15\nvalue = [1, 14]"] ;
35 -> 36 ;
37 [label="gini = 0.0\nsamples = 14\nvalue = [0, 14]"] ;
36 -> 37 ;
38 [label="gini = 0.0\nsamples = 1\nvalue = [1, 0]"] ;
36 -> 38 ;
39 [label="gini = 0.0\nsamples = 15\nvalue = [15, 0]"] ;
35 -> 39 ;
40 [label="X[0] <= 2.037\ngini = 0.01\nsamples = 394\nvalue = [392, 2]"] ;
24 -> 40 ;
41 [label="X[0] <= 2.017\ngini = 0.083\nsamples = 46\nvalue = [44, 2]"] ;
40 -> 41 ;
42 [label="gini = 0.0\nsamples = 43\nvalue = [43, 0]"] ;
41 -> 42 ;
43 [label="X[3] <= 0.815\ngini = 0.444\nsamples = 3\nvalue = [1, 2]"] ;
41 -> 43 ;
44 [label="gini = 0.0\nsamples = 2\nvalue = [0, 2]"] ;
43 -> 44 ;
45 [label="gini = 0.0\nsamples = 1\nvalue = [1, 0]"] ;
43 -> 45 ;
46 [label="gini = 0.0\nsamples = 348\nvalue = [348, 0]"] ;
40 -> 46 ;
}