digraph Tree {
node [shape=box] ;
0 [label="X[0] <= 0.702\ngini = 0.489\nsamples = 274\nvalue = [157, 117]"] ;
1 [label="X[1] <= 5.55\ngini = 0.301\nsamples = 130\nvalue = [24, 106]"] ;
0 -> 1 [labeldistance=2.5, labelangle=45, headlabel="True"] ;
2 [label="X[0] <= 0.153\ngini = 0.092\nsamples = 104\nvalue = [5, 99]"] ;
1 -> 2 ;
3 [label="X[3] <= 0.422\ngini = 0.042\nsamples = 94\nvalue = [2, 92]"] ;
2 -> 3 ;
4 [label="gini = 0.0\nsamples = 70\nvalue = [0, 70]"] ;
3 -> 4 ;
5 [label="X[2] <= 6.416\ngini = 0.153\nsamples = 24\nvalue = [2, 22]"] ;
3 -> 5 ;
6 [label="gini = 0.0\nsamples = 14\nvalue = [0, 14]"] ;
5 -> 6 ;
7 [label="gini = 0.32\nsamples = 10\nvalue = [2, 8]"] ;
5 -> 7 ;
8 [label="gini = 0.42\nsamples = 10\nvalue = [3, 7]"] ;
2 -> 8 ;
9 [label="X[0] <= -1.967\ngini = 0.393\nsamples = 26\nvalue = [19, 7]"] ;
1 -> 9 ;
10 [label="gini = 0.42\nsamples = 10\nvalue = [3, 7]"] ;
9 -> 10 ;
11 [label="gini = 0.0\nsamples = 16\nvalue = [16, 0]"] ;
9 -> 11 ;
12 [label="X[2] <= -3.993\ngini = 0.141\nsamples = 144\nvalue = [133, 11]"] ;
0 -> 12 [labeldistance=2.5, labelangle=-45, headlabel="False"] ;
13 [label="gini = 0.497\nsamples = 13\nvalue = [6, 7]"] ;
12 -> 13 ;
14 [label="X[2] <= -2.178\ngini = 0.059\nsamples = 131\nvalue = [127, 4]"] ;
12 -> 14 ;
15 [label="X[0] <= 2.662\ngini = 0.269\nsamples = 25\nvalue = [21, 4]"] ;
14 -> 15 ;
16 [label="gini = 0.48\nsamples = 10\nvalue = [6, 4]"] ;
15 -> 16 ;
17 [label="gini = 0.0\nsamples = 15\nvalue = [15, 0]"] ;
15 -> 17 ;
18 [label="gini = 0.0\nsamples = 106\nvalue = [106, 0]"] ;
14 -> 18 ;
}